-1.448242962360382080e-01,3.603473305702209473e-03,-1.617977023124694824e-01,-8.673501014709472656e-02,-2.403424680233001709e-02,1.483352482318878174e-02,-1.063595712184906006e-02,-1.542124152183532715e-02,-6.974066793918609619e-02,1.146218627691268921e-01,-4.300250113010406494e-02,2.309449017047882080e-02,-1.206550002098083496e-02,-1.582788527011871338e-01,4.026581346988677979e-02,1.198178976774215698e-01,-1.524887681007385254e-01,-1.678133457899093628e-01,1.233756542205810547e-03,1.796102076768875122e-01,-7.896626740694046021e-02,-1.564705818891525269e-01,5.591049790382385254e-03,-2.560523152351379395e-02,1.902239173650741577e-01,1.120840758085250854e-01,1.741233915090560913e-01,-1.708503961563110352e-01,9.487088024616241455e-02,-5.399434268474578857e-02,-1.356139183044433594e-01,1.292704194784164429e-01,-1.659746170043945312e-01,-1.747005730867385864e-01,-6.822182238101959229e-02,-1.391762644052505493e-01,1.827602088451385498e-02,1.815688461065292358e-01,-1.223158687353134155e-01,-1.128562167286872864e-01,-1.262329816818237305e-01,-1.272822022438049316e-01,-7.094566524028778076e-02,5.105642974376678467e-02,9.853871166706085205e-02,1.679375022649765015e-01,-1.194443479180335999e-01,-7.232224941253662109e-02,-1.914219707250595093e-01,1.104113012552261353e-01,1.865316480398178101e-01,-1.070339232683181763e-01,1.759280711412429810e-01,7.806946337223052979e-02,-1.357199847698211670e-01,-4.312044382095336914e-02,6.940205395221710205e-02,-7.714523375034332275e-02,-5.425526201725006104e-02,-1.970103979110717773e-01,2.807566523551940918e-02,4.229977726936340332e-03,-1.832432150840759277e-01,-1.973731815814971924e-01,7.966087758541107178e-02,1.691767126321792603e-01,9.786580502986907959e-02,-2.728517353534698486e-02,-1.652075052261352539e-01,1.569457352161407471e-02,5.749328434467315674e-02,-1.171628683805465698e-01,-1.300194859504699707e-01,1.342058926820755005e-01,1.130060404539108276e-01,-1.517360657453536987e-01,-1.517031341791152954e-01,-1.274760067462921143e-01,-3.676520287990570068e-02,-8.343950659036636353e-02,1.263863295316696167e-01,8.225090801715850830e-02,1.697076708078384399e-01,-1.369710713624954224e-01,1.265170425176620483e-01,-1.830187737941741943e-01,1.733739525079727173e-01,-2.915994822978973389e-02,1.955368965864181519e-01,2.022835463285446167e-01,1.718950122594833374e-01,1.939306706190109253e-01,2.579811215400695801e-02,-1.476964950561523438e-01,1.767356693744659424e-02,-1.376208662986755371e-01,-1.684143543243408203e-01,1.888879686594009399e-01,-1.970681697130203247e-01,-6.432376801967620850e-02,-1.175100207328796387e-01,-8.294171839952468872e-02,1.282305568456649780e-01,-2.086707949638366699e-02,1.857977658510208130e-01,-1.412237882614135742e-01,1.926724165678024292e-01,-1.460383236408233643e-01,6.413827836513519287e-02,1.602421700954437256e-02,-1.057329401373863220e-01,-7.821555435657501221e-02,1.034671813249588013e-01,-2.004501819610595703e-01,-7.078349590301513672e-04,9.592564404010772705e-02,-1.771833300590515137e-01,1.070978492498397827e-01,-3.106410801410675049e-02,3.222255408763885498e-02,1.376932114362716675e-01,-7.111419737339019775e-02,8.143816888332366943e-02,-1.785626411437988281e-01,1.366018503904342651e-01,-6.199000775814056396e-02,8.074258267879486084e-02,1.950615644454956055e-02
-4.603364318609237671e-02,1.450364291667938232e-01,-2.262104898691177368e-01,1.644815653562545776e-01,3.467952832579612732e-02,4.637780413031578064e-02,9.458056837320327759e-02,1.223334819078445435e-01,-4.237883165478706360e-02,-1.495010405778884888e-01,7.969381660223007202e-02,-1.579100191593170166e-01,2.594935297966003418e-01,-2.053934708237648010e-02,-2.285151928663253784e-01,3.463111445307731628e-02,-5.546630825847387314e-03,-2.322978675365447998e-01,-2.077583223581314087e-01,-1.138387247920036316e-01,-2.253478467464447021e-01,8.565311133861541748e-02,-1.166981905698776245e-01,1.857107132673263550e-01,-2.728670835494995117e-01,-2.609463036060333252e-01,3.382743801921606064e-03,-1.700377017259597778e-01,-8.554142713546752930e-02,-4.157277196645736694e-02,2.564724721014499664e-02,-1.523499339818954468e-01,-3.182044923305511475e-01,1.905791908502578735e-01,-1.600285023450851440e-01,1.340880542993545532e-01,2.135850936174392700e-01,-1.029052585363388062e-01,-1.039869785308837891e-01,-1.220593675971031189e-01,-2.194963097572326660e-01,-7.506193965673446655e-02,4.589663445949554443e-02,8.250981569290161133e-02,7.389359176158905029e-02,1.668781787157058716e-01,-5.540826544165611267e-02,2.344702780246734619e-01,1.976310759782791138e-01,4.024365544319152832e-02,-2.868408560752868652e-01,-2.283710390329360962e-01,-2.415177784860134125e-02,-8.943872153759002686e-02,-1.363608539104461670e-01,-1.764618605375289917e-01,-2.120249271392822266e-01,8.637715131044387817e-02,1.298800855875015259e-02,-8.949807286262512207e-02,-2.730597555637359619e-02,6.621812283992767334e-02,-1.167298257350921631e-01,1.697091907262802124e-01,1.313793808221817017e-01,-3.018535114824771881e-02,1.701512932777404785e-01,-1.431030780076980591e-01,-8.492583036422729492e-02,6.915337592363357544e-02,1.141279265284538269e-01,-1.656489819288253784e-01,-8.025807142257690430e-02,-3.904494345188140869e-01,-1.104990467429161072e-01,1.158429309725761414e-01,-4.506433010101318359e-02,-1.935354024171829224e-01,-9.678604453802108765e-02,-9.773647040128707886e-02,-1.403564661741256714e-01,-4.419623315334320068e-01,1.105258688330650330e-01,-2.597734890878200531e-02,-1.505084708333015442e-02,2.056786045432090759e-02,1.849794089794158936e-01,-4.263657703995704651e-02,-2.202500253915786743e-01,1.738724559545516968e-01,-1.290957331657409668e-01,9.791449457406997681e-02,-1.546671092510223389e-01,2.104098498821258545e-01,2.321700155735015869e-01,2.564249336719512939e-01,-9.039781987667083740e-02,1.055057160556316376e-02,-4.060651659965515137e-01,2.349207550287246704e-02,-4.857035353779792786e-02,-8.110324293375015259e-02,1.219490021467208862e-01,3.564883396029472351e-02,8.082348853349685669e-02,-1.563918031752109528e-02,7.791651785373687744e-02,2.043965458869934082e-01,2.210187315940856934e-01,1.173227652907371521e-02,1.214363723993301392e-01,-2.891042232513427734e-01,-4.956533908843994141e-01,1.142122447490692139e-01,-9.557270258665084839e-02,-5.612187087535858154e-02,-2.346054166555404663e-01,8.203615993261337280e-02,6.251492537558078766e-03,7.639080286026000977e-02,3.689542412757873535e-02,-7.087735086679458618e-02,-3.687397018074989319e-02,-2.750757038593292236e-01,-1.102355867624282837e-01,-2.182780392467975616e-02,-1.695471629500389099e-02,1.841225773096084595e-01
-1.802666336297988892e-01,1.527965068817138672e-01,9.631612151861190796e-02,1.537759304046630859e-01,1.128642186522483826e-01,3.105176985263824463e-02,1.562394667416810989e-02,1.594558656215667725e-01,1.805169135332107544e-02,-1.746032834053039551e-01,-1.071385741233825684e-01,2.029673755168914795e-02,5.489646270871162415e-02,-2.796740038320422173e-03,-5.915706232190132141e-02,-1.074760407209396362e-01,1.659781485795974731e-02,1.992450803518295288e-01,4.068481922149658203e-02,3.229246661067008972e-02,5.752533674240112305e-02,-6.876355037093162537e-03,-1.676649898290634155e-01,-2.251335792243480682e-02,5.880374833941459656e-02,1.155395284295082092e-01,3.437929973006248474e-02,1.360143125057220459e-01,2.285622246563434601e-02,-1.714257448911666870e-01,-2.011431902647018433e-01,-1.833640784025192261e-01,-1.314730197191238403e-01,-8.059260249137878418e-02,-2.064090669155120850e-01,1.675350777804851532e-02,-8.770664781332015991e-02,7.410510629415512085e-02,-1.161162406206130981e-01,9.898337721824645996e-02,7.533214986324310303e-02,-6.123831123113632202e-02,4.807442799210548401e-02,-1.237184777855873108e-01,1.549893319606781006e-01,-1.276260912418365479e-01,1.915301010012626648e-02,-1.210946813225746155e-01,2.540484070777893066e-01,-4.293626919388771057e-02,-1.420292854309082031e-01,4.782634973526000977e-02,1.273330301046371460e-01,-2.633681893348693848e-01,-1.911087632179260254e-01,5.520525947213172913e-02,7.716706488281488419e-03,-1.829423159360885620e-01,1.931167691946029663e-01,1.615560948848724365e-01,-1.859067082405090332e-01,-6.218123063445091248e-02,-1.891540139913558960e-01,8.427058905363082886e-02,1.715200543403625488e-01,6.664891541004180908e-02,3.874246031045913696e-02,2.901338338851928711e-01,1.440566033124923706e-01,5.119641125202178955e-02,2.226634770631790161e-01,1.917776316404342651e-01,2.079298943281173706e-01,-1.042876169085502625e-01,-2.026546299457550049e-01,5.214563012123107910e-02,-1.043096408247947693e-01,-1.561625450849533081e-01,1.571435034275054932e-01,-1.215017810463905334e-01,3.693591430783271790e-02,1.885491758584976196e-01,-8.851334452629089355e-02,-3.022078573703765869e-01,6.305319070816040039e-02,-1.242945939302444458e-01,1.428635269403457642e-01,7.890919595956802368e-02,1.388947218656539917e-01,-9.016620367765426636e-02,9.197998046875000000e-02,-1.428376287221908569e-01,2.029168233275413513e-02,5.900323763489723206e-02,3.138318285346031189e-02,-3.209827002137899399e-03,-1.650780588388442993e-01,1.311165373772382736e-02,-1.386501491069793701e-01,-4.751821234822273254e-02,1.740579456090927124e-01,-9.010872244834899902e-02,-1.081803515553474426e-01,9.319035336375236511e-03,-1.510289311408996582e-01,5.360511690378189087e-02,-1.144664511084556580e-01,1.209718212485313416e-01,1.424226760864257812e-01,-1.270363330841064453e-01,1.391135156154632568e-01,-4.308691993355751038e-02,1.848375946283340454e-01,2.770744077861309052e-02,-2.108742594718933105e-01,-1.430674791336059570e-01,1.418473720550537109e-01,1.410817801952362061e-01,1.795465350151062012e-01,2.127561904489994049e-02,9.061301499605178833e-02,1.266470998525619507e-01,8.233752846717834473e-02,7.104954868555068970e-02,8.966485410928726196e-02,-4.581830650568008423e-02,1.296828985214233398e-01,-1.623282134532928467e-01
-1.642269045114517212e-01,-1.987027227878570557e-01,-3.675580024719238281e-02,-1.013788059353828430e-01,1.402607113122940063e-01,1.611558049917221069e-01,-1.480433195829391479e-01,-1.445147395133972168e-01,-2.920737862586975098e-02,-1.706496179103851318e-01,-1.374342739582061768e-01,-1.714185625314712524e-01,7.726252079010009766e-05,-1.961235105991363525e-01,-1.828383505344390869e-01,3.091032803058624268e-02,1.427095085382461548e-01,1.621344834566116333e-01,-1.327916681766510010e-01,-1.387928724288940430e-01,1.228240877389907837e-01,1.445191949605941772e-01,1.390510797500610352e-02,9.854112565517425537e-02,8.935602009296417236e-02,-1.311019361019134521e-01,-1.697975397109985352e-02,5.915640294551849365e-02,6.749646365642547607e-02,1.797703951597213745e-01,-5.952641367912292480e-02,-1.611157953739166260e-01,-1.996559202671051025e-01,1.414338499307632446e-01,-1.115736365318298340e-02,2.972652018070220947e-02,5.208028852939605713e-02,-1.047303751111030579e-01,2.295480668544769287e-02,1.467755436897277832e-02,5.654270946979522705e-02,5.836339294910430908e-02,-8.038704097270965576e-02,-1.285518109798431396e-01,-5.414411425590515137e-03,8.186306059360504150e-02,-1.538352966308593750e-01,-1.737910807132720947e-01,-6.444434821605682373e-02,3.844530880451202393e-02,1.135632842779159546e-01,1.724359840154647827e-01,-9.782120585441589355e-03,6.212793290615081787e-02,9.065270423889160156e-03,1.997825354337692261e-01,-1.622083783149719238e-02,-1.405870467424392700e-01,1.876466721296310425e-01,3.237877786159515381e-02,-1.894152164459228516e-02,1.873692125082015991e-01,-1.688760519027709961e-02,2.287188172340393066e-02,-4.595114290714263916e-02,1.575486212968826294e-01,-7.677634060382843018e-02,-4.544302821159362793e-03,-1.155289411544799805e-01,9.616653621196746826e-02,-1.496245265007019043e-01,-7.025542855262756348e-02,-1.150730997323989868e-01,-1.420692801475524902e-01,1.890843659639358521e-01,-2.975261211395263672e-02,-6.719820201396942139e-02,7.651342451572418213e-02,-1.251202225685119629e-01,1.170171797275543213e-02,-1.230203211307525635e-01,-1.196531876921653748e-01,-5.031739175319671631e-02,-1.075292900204658508e-01,9.166128933429718018e-02,9.082551300525665283e-02,1.123286783695220947e-02,1.978298276662826538e-01,-8.410457521677017212e-02,1.308338195085525513e-01,2.309744060039520264e-02,1.698372215032577515e-01,-5.174791812896728516e-02,1.722711175680160522e-01,1.489510089159011841e-01,9.119342267513275146e-02,-9.835102409124374390e-02,6.306634843349456787e-02,1.827205866575241089e-01,-1.332723051309585571e-01,3.209112584590911865e-02,-9.973064064979553223e-03,1.958270221948623657e-01,1.488661617040634155e-01,1.659592241048812866e-01,-1.539277732372283936e-01,8.588983118534088135e-02,1.716172546148300171e-01,5.267079174518585205e-02,-1.800858974456787109e-01,5.823110044002532959e-02,-1.213123798370361328e-01,3.674547374248504639e-02,-1.182372868061065674e-02,1.526461988687515259e-01,-1.441016644239425659e-01,-4.544737935066223145e-02,-2.215713262557983398e-03,4.495161771774291992e-02,-1.662108004093170166e-01,-1.816266030073165894e-01,-1.736018806695938110e-01,1.740644872188568115e-02,-1.616720855236053467e-01,-1.283881664276123047e-01,2.677361667156219482e-02,1.267285794019699097e-01,8.204124867916107178e-02
4.893071204423904419e-02,8.722091466188430786e-02,-2.052667737007141113e-01,-4.453330114483833313e-02,9.464626759290695190e-02,-1.396336406469345093e-01,1.474763154983520508e-01,-8.679262548685073853e-02,-2.029287070035934448e-02,3.514495864510536194e-02,-4.511379450559616089e-02,-3.957222402095794678e-02,-1.859912425279617310e-01,-1.318251341581344604e-01,2.044705599546432495e-01,-3.410418331623077393e-01,2.140440419316291809e-02,1.777601093053817749e-01,2.463695406913757324e-01,4.934315383434295654e-02,2.030692249536514282e-01,1.195068657398223877e-01,9.834979474544525146e-02,-7.734188437461853027e-02,2.209893763065338135e-01,1.706593185663223267e-01,5.400380492210388184e-02,-1.370824724435806274e-01,-1.207213774323463440e-01,-1.066126450896263123e-01,4.066726658493280411e-03,-9.754753112792968750e-02,-1.164680346846580505e-01,3.227889910340309143e-02,-7.431168109178543091e-02,-1.145788654685020447e-01,-4.216159880161285400e-02,-2.321936190128326416e-01,-1.531199663877487183e-01,1.135505959391593933e-01,3.943825885653495789e-02,1.141112372279167175e-01,-4.452073946595191956e-02,-1.911934912204742432e-01,9.640725702047348022e-02,3.173313289880752563e-02,1.056972444057464600e-01,1.748660504817962646e-01,-1.700522601604461670e-01,-3.823335468769073486e-02,1.445972025394439697e-01,3.185395598411560059e-01,-1.765379458665847778e-01,-1.104117110371589661e-01,7.681559771299362183e-02,1.310982704162597656e-01,5.017778277397155762e-02,-2.072861343622207642e-01,-1.748778373003005981e-01,1.750485450029373169e-01,7.562183588743209839e-02,3.033278584480285645e-01,7.169099897146224976e-02,4.133753105998039246e-02,9.898881614208221436e-02,-4.958251491189002991e-02,4.729840904474258423e-02,-9.097948670387268066e-02,-1.689006760716438293e-02,1.288063973188400269e-01,-5.603166669607162476e-02,2.079188376665115356e-01,3.037265539169311523e-01,1.908427625894546509e-01,1.510688066482543945e-01,7.402146607637405396e-02,-3.599240481853485107e-01,1.830557286739349365e-01,-1.516539901494979858e-01,1.393562406301498413e-01,1.223008558154106140e-01,-1.694614589214324951e-01,1.519224494695663452e-01,-2.337264828383922577e-02,-1.612771749496459961e-01,-1.899931728839874268e-01,1.358269453048706055e-01,1.349980533123016357e-01,2.832841686904430389e-02,2.933101952075958252e-01,1.688966713845729828e-02,1.266612410545349121e-01,1.105442345142364502e-01,-7.422216981649398804e-02,-1.456935256719589233e-01,8.903367817401885986e-02,2.780835330486297607e-01,1.733080297708511353e-01,2.216773331165313721e-01,-9.872698038816452026e-02,-1.527822762727737427e-01,8.153038471937179565e-02,6.119170691817998886e-03,-1.028947383165359497e-01,-9.338580071926116943e-02,6.080333143472671509e-02,8.511255495250225067e-03,-5.415671970695257187e-03,-9.806311130523681641e-02,-1.961444616317749023e-01,-1.665149182081222534e-01,-1.799685060977935791e-01,9.237544238567352295e-02,-4.065494611859321594e-02,2.363547384738922119e-01,9.522639960050582886e-02,1.051137968897819519e-01,-8.632231503725051880e-02,-1.964796632528305054e-01,1.519460827112197876e-01,-3.140135854482650757e-02,2.084692567586898804e-01,7.836356014013290405e-02,2.410484105348587036e-01,-2.007393091917037964e-01,-2.076829671859741211e-01,-2.143391668796539307e-01,1.544112116098403931e-01
9.929696470499038696e-02,1.629959419369697571e-02,-1.788158901035785675e-02,-7.033858448266983032e-02,1.442173570394515991e-01,-1.916123032569885254e-01,-3.169453516602516174e-02,1.658217310905456543e-01,-1.290945559740066528e-01,-1.814689934253692627e-01,1.814799010753631592e-02,-1.664037257432937622e-01,-2.283221185207366943e-01,-2.023544013500213623e-01,1.349966824054718018e-01,-8.648382872343063354e-02,-8.086626976728439331e-02,-4.388411715626716614e-02,1.929923295974731445e-01,-1.407771855592727661e-01,1.280511766672134399e-01,3.525118157267570496e-02,-1.230773180723190308e-01,8.172867447137832642e-02,1.127228047698736191e-02,-7.667730748653411865e-02,-1.347797457128763199e-02,-2.965284585952758789e-01,-3.117232322692871094e-01,-2.831845283508300781e-01,-3.877542018890380859e-01,-1.670357584953308105e-01,9.263104945421218872e-02,-1.437014192342758179e-01,1.046524420380592346e-01,-4.153772443532943726e-02,1.475802510976791382e-01,-6.048754602670669556e-02,7.898826897144317627e-02,4.967476055026054382e-02,-1.514939367771148682e-01,-1.033025234937667847e-01,6.318731606006622314e-02,-3.358365595340728760e-02,6.316874921321868896e-02,-1.374356746673583984e-01,1.515944004058837891e-01,-1.947778761386871338e-01,1.271516084671020508e-01,-1.332895830273628235e-02,-1.527891010046005249e-01,1.926087029278278351e-02,1.408055573701858521e-01,3.701666370034217834e-02,3.146788105368614197e-02,6.192234158515930176e-02,6.316891405731439590e-03,9.694930166006088257e-02,2.202974259853363037e-01,-1.278324611485004425e-02,-2.293543368577957153e-01,3.692791983485221863e-02,1.568890661001205444e-01,5.041534546762704849e-03,4.748426750302314758e-02,2.239404805004596710e-02,1.385557353496551514e-01,4.768547043204307556e-02,-8.615653961896896362e-02,1.498741954565048218e-01,6.600444763898849487e-02,1.186305806040763855e-01,-1.690960377454757690e-01,-2.750183045864105225e-01,-1.746109426021575928e-01,-8.695095777511596680e-02,-7.116807997226715088e-02,6.980551779270172119e-02,7.247915118932723999e-02,1.414190083742141724e-01,-1.178854554891586304e-01,-3.355955481529235840e-01,1.023877039551734924e-01,1.203745380043983459e-01,-1.561596989631652832e-01,-7.371140271425247192e-02,5.721648782491683960e-02,1.451186388731002808e-01,1.720193624496459961e-01,-1.004580333828926086e-01,-1.577619761228561401e-01,8.013426512479782104e-02,2.769763581454753876e-02,2.676686085760593414e-02,-1.066038310527801514e-01,4.669882357120513916e-03,-1.964087784290313721e-01,-1.069854944944381714e-01,4.122111946344375610e-02,1.378579288721084595e-01,-1.050163432955741882e-01,1.542340070009231567e-01,9.067475050687789917e-02,1.223307028412818909e-01,2.421781606972217560e-02,1.482363343238830566e-01,-1.765561103820800781e-02,1.534937024116516113e-01,1.806426048278808594e-02,-4.407055675983428955e-02,5.241649225354194641e-02,-2.284113168716430664e-01,-1.552467197179794312e-01,1.518316268920898438e-01,-1.226658225059509277e-01,1.870523542165756226e-01,2.263253480195999146e-01,6.234382744878530502e-04,1.043890565633773804e-01,7.946495711803436279e-02,-4.736750945448875427e-02,-3.693585470318794250e-02,9.970658458769321442e-03,7.783929258584976196e-02,-1.241122037172317505e-01,1.285149063915014267e-02,1.337044537067413330e-01,1.837503015995025635e-01
2.871090173721313477e-02,-1.754517257213592529e-01,-1.758892834186553955e-01,-1.701485663652420044e-01,-7.293382287025451660e-02,6.654967367649078369e-02,1.123122125864028931e-01,1.317611187696456909e-01,-1.021771952509880066e-01,1.984569877386093140e-01,-1.195056736469268799e-02,-1.248405799269676208e-01,-9.965210407972335815e-02,-1.195896491408348083e-01,-8.596271276473999023e-02,-1.963808387517929077e-01,1.419257670640945435e-01,-1.051200106739997864e-01,1.578236371278762817e-01,1.830304116010665894e-01,-1.598000228404998779e-01,5.490423738956451416e-02,-4.734262824058532715e-03,7.568642497062683105e-03,-6.885860860347747803e-02,-1.616590321063995361e-01,-1.834142804145812988e-01,1.634495705366134644e-01,6.359337270259857178e-02,8.871744573116302490e-02,-1.097775995731353760e-01,8.481542766094207764e-02,-1.536365002393722534e-01,-1.834359019994735718e-01,1.881400197744369507e-01,8.057157695293426514e-02,-1.099282428622245789e-01,-4.920506477355957031e-02,1.982720643281936646e-01,1.103377193212509155e-01,-1.170895323157310486e-01,-1.336326003074645996e-01,-2.008323371410369873e-02,-1.206375658512115479e-02,-1.188169196248054504e-01,-4.998929798603057861e-02,2.010324150323867798e-01,1.141846328973770142e-01,-1.814763545989990234e-01,-1.665155589580535889e-02,-1.697126626968383789e-01,1.399943083524703979e-01,-1.605173647403717041e-01,1.649857610464096069e-01,4.250946640968322754e-02,1.328030228614807129e-02,8.959735929965972900e-02,-1.741501688957214355e-01,-1.253080368041992188e-02,1.221448034048080444e-01,-4.358649253845214844e-03,-1.637531667947769165e-01,9.267811477184295654e-02,-5.750268697738647461e-03,-1.121197119355201721e-01,7.616336643695831299e-02,-1.010948494076728821e-01,1.284606307744979858e-01,8.295364677906036377e-02,1.840862780809402466e-01,-1.230629011988639832e-01,-1.586520969867706299e-01,-1.843290179967880249e-01,1.344850510358810425e-01,-1.812888085842132568e-01,1.995990425348281860e-01,5.566196143627166748e-02,5.693604052066802979e-02,2.841451764106750488e-02,-2.602235972881317139e-02,1.618884354829788208e-01,-4.016992449760437012e-02,1.071040183305740356e-01,5.246280133724212646e-02,1.230812817811965942e-01,-1.253030598163604736e-01,-1.974230855703353882e-01,-1.321733593940734863e-01,1.954142600297927856e-01,-1.122175827622413635e-01,8.198110759258270264e-02,-1.134915500879287720e-01,-1.312391757965087891e-01,-1.277644783258438110e-01,1.592391282320022583e-01,3.979536890983581543e-02,-1.763177812099456787e-01,-1.922276616096496582e-02,1.119865924119949341e-01,1.850775331258773804e-01,1.667158156633377075e-01,1.727436929941177368e-01,6.407037377357482910e-03,-6.772190332412719727e-03,-1.115420460700988770e-02,-6.085881590843200684e-02,1.062195450067520142e-01,1.773195117712020874e-01,-9.921435266733169556e-02,6.033943593502044678e-02,1.662655919790267944e-01,1.194797009229660034e-01,-1.993653178215026855e-01,-3.807695209980010986e-02,-1.876759678125381470e-01,1.558249145746231079e-01,-1.542320102453231812e-01,6.715923547744750977e-03,-1.530455350875854492e-01,-1.181070432066917419e-01,-1.640345603227615356e-01,-1.262232810258865356e-01,7.008470594882965088e-02,9.550645947456359863e-03,-7.763506472110748291e-02,-2.216359972953796387e-02,-7.169254124164581299e-02,-5.057860910892486572e-02
1.404097974300384521e-01,7.122066617012023926e-02,1.351842135190963745e-01,-9.347912669181823730e-02,-2.250024080276489258e-01,-2.982855439186096191e-01,4.397144913673400879e-02,-1.166307777166366577e-01,2.312024533748626709e-01,-8.413377404212951660e-02,1.879696846008300781e-01,1.027771383523941040e-01,-2.424360960721969604e-01,-7.465181499719619751e-02,-9.274857118725776672e-03,-3.608568385243415833e-02,8.192905038595199585e-02,-1.327107846736907959e-01,9.620580822229385376e-02,-1.577021628618240356e-01,-2.073901742696762085e-01,-2.134318053722381592e-01,-9.706281125545501709e-02,1.557979558128863573e-04,1.447722911834716797e-01,9.884424507617950439e-02,1.411618739366531372e-01,-9.295822679996490479e-02,-2.481313347816467285e-01,-2.578714303672313690e-02,-8.486843109130859375e-02,1.205128878355026245e-01,3.076917864382266998e-02,2.880371361970901489e-02,3.089861273765563965e-01,-5.419692397117614746e-02,-7.369598746299743652e-02,-6.869139522314071655e-02,-3.180585429072380066e-02,5.140696093440055847e-02,-1.443209350109100342e-01,-2.496247738599777222e-01,-9.634077548980712891e-02,1.845434606075286865e-01,-1.401040554046630859e-01,1.492488384246826172e-01,-2.120295017957687378e-01,2.210840024054050446e-02,1.169597730040550232e-02,-1.172683015465736389e-01,1.605305522680282593e-01,1.096816435456275940e-01,2.089398652315139771e-01,-4.446781706064939499e-03,-9.411114454269409180e-02,2.189646661281585693e-02,1.785751245915889740e-02,-5.377676337957382202e-02,8.899362385272979736e-02,2.323147207498550415e-01,1.603708975017070770e-02,6.499157287180423737e-03,5.838282778859138489e-02,-6.684504449367523193e-02,-1.466653794050216675e-01,1.481758654117584229e-01,-9.770556353032588959e-03,-5.395459011197090149e-02,-2.069736868143081665e-01,3.329726681113243103e-02,1.350195705890655518e-01,-2.363600581884384155e-01,1.866311132907867432e-01,1.207024753093719482e-01,4.207872599363327026e-02,1.626882404088973999e-01,-2.262819856405258179e-01,-1.357074677944183350e-01,-3.852190822362899780e-02,1.976848691701889038e-01,1.459692865610122681e-01,9.904271923005580902e-03,-9.005448967218399048e-02,-1.423732042312622070e-01,2.255713194608688354e-01,8.236998319625854492e-02,9.607533365488052368e-02,8.385696262121200562e-02,-7.342986762523651123e-02,-2.323058545589447021e-01,1.650428026914596558e-01,-1.933790370821952820e-02,1.899412274360656738e-01,1.728221923112869263e-01,-5.838116258382797241e-02,-1.065738871693611145e-01,1.979939043521881104e-01,8.392581343650817871e-02,5.332110077142715454e-02,-9.412286430597305298e-02,-4.399671405553817749e-02,1.914830952882766724e-01,1.580896973609924316e-01,-5.684668198227882385e-02,-1.249355375766754150e-01,5.929937586188316345e-03,3.238381817936897278e-02,-1.982160806655883789e-01,1.815831959247589111e-01,-6.924413442611694336e-01,-9.144779294729232788e-02,-1.377153992652893066e-01,7.720663398504257202e-02,-4.639481008052825928e-02,-5.628474801778793335e-02,9.629681706428527832e-02,1.479536890983581543e-01,6.090445443987846375e-02,-1.349973082542419434e-01,-2.156787663698196411e-01,-6.020860746502876282e-02,-8.226550999097526073e-04,7.791249454021453857e-02,1.667906194925308228e-01,1.204780042171478271e-01,-6.392813920974731445e-01,-9.615255892276763916e-02,2.303728312253952026e-01
1.235674545168876648e-01,-7.842310518026351929e-02,-2.688989788293838501e-02,-4.329883679747581482e-02,3.468954190611839294e-02,1.528480648994445801e-01,-2.425111830234527588e-01,3.625598922371864319e-02,-1.635900735855102539e-01,-7.347521185874938965e-02,1.897565275430679321e-01,-5.707590281963348389e-02,6.834953092038631439e-04,-1.303482353687286377e-01,-1.476641297340393066e-01,-1.482924073934555054e-01,9.623180329799652100e-02,2.374761402606964111e-01,9.164208918809890747e-02,5.419946089386940002e-02,-6.583191454410552979e-02,-9.787558764219284058e-02,1.270488798618316650e-01,-7.870567031204700470e-03,-8.913633227348327637e-02,-1.424916386604309082e-01,-7.747875154018402100e-02,-2.869640104472637177e-02,-5.487836152315139771e-02,-2.396548688411712646e-01,2.283399850130081177e-01,1.047184020280838013e-01,-1.467579752206802368e-01,-9.881328791379928589e-02,-1.327867358922958374e-01,-2.903153002262115479e-01,-1.513045281171798706e-01,-5.927777290344238281e-02,1.981096565723419189e-01,-2.355990409851074219e-01,-3.815039992332458496e-02,-9.246736764907836914e-02,1.401411145925521851e-01,-1.584760546684265137e-01,9.680707752704620361e-02,-1.772680580615997314e-01,5.367637053132057190e-02,1.759125106036663055e-02,-1.354526728391647339e-01,1.737082749605178833e-01,-1.945085674524307251e-01,-4.013069570064544678e-01,-7.890556752681732178e-02,-1.816993057727813721e-01,7.024869322776794434e-02,6.876862049102783203e-02,1.399722248315811157e-01,-1.550133973360061646e-01,-1.680057644844055176e-01,8.055269718170166016e-02,-4.471811279654502869e-02,-3.639500960707664490e-02,-1.042034700512886047e-01,1.921166330575942993e-01,-1.770788431167602539e-01,8.006690442562103271e-02,-7.233361154794692993e-02,-9.743253886699676514e-02,-2.176400870084762573e-01,-5.747207999229431152e-02,-1.192443519830703735e-01,-1.107991188764572144e-01,-5.626022815704345703e-02,7.427206635475158691e-02,8.413143455982208252e-02,1.589448451995849609e-01,-9.441442042589187622e-02,2.030580304563045502e-02,-1.739066392183303833e-01,8.660903573036193848e-02,-1.871943175792694092e-01,1.790764392353594303e-03,-3.265018016099929810e-02,-6.138968095183372498e-02,-2.468787729740142822e-01,5.502789467573165894e-02,4.111351072788238525e-02,1.750369966030120850e-01,-1.483537703752517700e-01,1.142093762755393982e-01,-1.526767313480377197e-01,-1.171191483736038208e-01,1.845282614231109619e-01,8.383719623088836670e-02,1.504019498825073242e-01,1.449836194515228271e-01,-3.390743583440780640e-02,-1.241070218384265900e-02,-8.318293839693069458e-02,6.790418177843093872e-03,1.322730779647827148e-01,8.999656885862350464e-02,5.989430099725723267e-02,-6.069654971361160278e-02,-7.548255473375320435e-02,1.476855725049972534e-01,-3.097128868103027344e-02,7.645771652460098267e-02,-1.066394746303558350e-01,2.059636563062667847e-01,-1.151567846536636353e-01,-2.051816508173942566e-02,-5.458397790789604187e-02,1.226565837860107422e-01,-1.034007370471954346e-01,3.646623715758323669e-02,-1.902108788490295410e-01,-1.958890557289123535e-01,9.710894525051116943e-02,-1.265644878149032593e-01,-2.660027518868446350e-02,-6.066188216209411621e-02,1.811030507087707520e-01,-1.675861626863479614e-01,8.486302196979522705e-02,9.628038108348846436e-02,3.849373385310173035e-02,-3.394556045532226562e-01
5.789015293121337891e-01,1.495354622602462769e-01,8.601843565702438354e-02,5.605746060609817505e-02,-5.232916772365570068e-02,1.193336918950080872e-01,-2.577333450317382812e-01,-4.642633348703384399e-02,2.237807214260101318e-02,7.050546407699584961e-01,-8.057630062103271484e-02,-1.350766420364379883e-02,-1.009818315505981445e-01,-1.090873628854751587e-01,1.590342074632644653e-01,-6.935659795999526978e-02,1.782357990741729736e-01,4.834931716322898865e-02,1.096464619040489197e-01,-4.681043326854705811e-02,-2.510302066802978516e-01,-6.325774788856506348e-01,-2.690722979605197906e-02,-5.930262058973312378e-02,2.002942711114883423e-01,-1.966149657964706421e-01,2.337166368961334229e-01,-2.069636583328247070e-01,-5.118144154548645020e-01,8.403550833463668823e-03,-2.303503453731536865e-03,-1.976263821125030518e-01,3.502259775996208191e-02,-9.120914340019226074e-02,-1.492719501256942749e-01,2.426675707101821899e-01,2.916697859764099121e-01,-1.528251469135284424e-01,2.365323156118392944e-01,1.541212350130081177e-01,-1.173554956912994385e-01,1.054936903528869152e-03,1.372320502996444702e-01,-5.032788962125778198e-02,-3.974699229001998901e-02,-1.820457912981510162e-02,6.066797673702239990e-02,-1.296322196722030640e-01,4.595720171928405762e-01,-1.549175083637237549e-01,1.398457437753677368e-01,1.557110548019409180e-01,1.981206536293029785e-01,-1.204181462526321411e-01,-9.738235175609588623e-02,5.110169202089309692e-02,-2.674210630357265472e-02,1.261183619499206543e-01,-2.847895920276641846e-01,8.900205045938491821e-02,7.948139905929565430e-01,4.771738648414611816e-01,-2.981333434581756592e-01,2.268012017011642456e-01,1.895980536937713623e-01,-1.031728461384773254e-01,1.876278966665267944e-02,-3.660365045070648193e-01,-2.335228174924850464e-01,-8.281622827053070068e-02,-1.627128720283508301e-01,6.213798746466636658e-02,-8.974067121744155884e-02,3.423207998275756836e-01,1.483800560235977173e-01,6.179306656122207642e-02,-1.076464429497718811e-01,-3.047144114971160889e-01,-2.716631889343261719e-01,2.145441770553588867e-01,5.381290987133979797e-02,1.480225175619125366e-01,-1.182634104043245316e-02,9.498317539691925049e-02,-2.725350856781005859e-01,-2.733461260795593262e-01,1.039547920227050781e-01,-2.158740162849426270e-01,-3.440782427787780762e-03,1.142243295907974243e-01,1.597205549478530884e-01,-1.804771646857261658e-02,1.121739223599433899e-01,2.270005345344543457e-01,1.919532380998134613e-02,-5.836893990635871887e-02,3.490783274173736572e-01,-7.924057543277740479e-03,2.431104928255081177e-01,1.465094685554504395e-01,1.966829448938369751e-01,-1.176428198814392090e-01,5.770250037312507629e-02,7.633149623870849609e-02,-1.342187374830245972e-01,-9.856424480676651001e-02,9.119903296232223511e-02,-1.572961807250976562e-01,3.691673874855041504e-01,3.098475337028503418e-01,-1.635183393955230713e-02,-6.233698874711990356e-02,6.993427127599716187e-02,1.548954099416732788e-01,2.068921923637390137e-01,-1.221375465393066406e-01,-3.990413248538970947e-01,1.368613839149475098e-01,4.451102763414382935e-02,3.999481797218322754e-01,-1.047784313559532166e-01,-4.544901847839355469e-02,8.314123749732971191e-02,-2.644779719412326813e-02,1.274279356002807617e-01,1.491064876317977905e-01,-1.154579296708106995e-01,-2.504293620586395264e-02
-2.186883687973022461e-01,-1.137223541736602783e-01,-1.162705719470977783e-01,1.215755268931388855e-01,-5.930927023291587830e-02,1.165564879775047302e-01,-1.558035910129547119e-01,-5.754935741424560547e-02,1.521701514720916748e-01,-1.031634286046028137e-01,-1.171269118785858154e-01,-1.849834620952606201e-02,1.374676972627639771e-01,5.444978922605514526e-02,-7.276152074337005615e-02,1.839973777532577515e-01,3.357303515076637268e-02,-1.421647518873214722e-01,-1.444980949163436890e-01,6.710479408502578735e-02,-3.463333249092102051e-01,6.916063837707042694e-03,-6.504560261964797974e-02,8.745054900646209717e-02,1.223908588290214539e-01,3.736390173435211182e-02,-1.004109606146812439e-01,-2.128297537565231323e-01,-2.897087857127189636e-02,-4.881356284022331238e-02,1.053170040249824524e-01,3.736998140811920166e-02,1.367349326610565186e-01,7.111176103353500366e-02,1.321267932653427124e-01,1.712993979454040527e-01,1.310082376003265381e-01,1.683314442634582520e-01,8.128860592842102051e-02,-3.270949423313140869e-02,-3.251875517889857292e-03,-7.920072972774505615e-02,-9.652609378099441528e-02,5.141289904713630676e-03,6.160895153880119324e-02,-1.717398762702941895e-01,-5.339278653264045715e-02,-2.399512566626071930e-02,-5.915967747569084167e-02,-1.341672241687774658e-01,-5.593875050544738770e-02,-2.305761724710464478e-01,-1.076455786824226379e-01,-6.171630322933197021e-02,-6.767501682043075562e-02,1.087464839220046997e-01,1.703304946422576904e-01,-5.187925323843955994e-02,-2.145290821790695190e-01,-1.399867236614227295e-01,-3.490969240665435791e-01,-1.570588648319244385e-01,1.485254764556884766e-01,5.094574391841888428e-02,-9.159483015537261963e-04,-1.419730335474014282e-01,-4.007092118263244629e-02,8.758666366338729858e-02,-2.289472669363021851e-01,-1.093165427446365356e-01,-1.696165353059768677e-01,1.563067138195037842e-01,-2.310355305671691895e-01,-8.009871095418930054e-02,6.567917764186859131e-03,2.010566554963588715e-02,9.278181195259094238e-02,9.548985958099365234e-02,6.376410275697708130e-02,1.565813720226287842e-01,1.359530389308929443e-01,-2.507798373699188232e-01,4.674055799841880798e-02,-6.379663199186325073e-02,1.264207363128662109e-01,-2.355187982320785522e-01,1.637072265148162842e-01,4.068461060523986816e-02,-3.628309816122055054e-03,-1.017257943749427795e-02,1.765022426843643188e-01,9.349821507930755615e-02,9.103056043386459351e-02,-3.280517831444740295e-02,2.627274394035339355e-01,-1.021603494882583618e-01,8.959361910820007324e-02,1.503343693912029266e-02,-1.345380544662475586e-01,-9.452840685844421387e-02,1.405538618564605713e-01,1.247275322675704956e-01,2.661990001797676086e-02,1.686633378267288208e-01,-1.375831216573715210e-01,-1.377341989427804947e-02,-5.014726147055625916e-02,-1.160112023353576660e-01,9.301224350929260254e-02,1.963031738996505737e-01,9.513963945209980011e-03,-3.394486904144287109e-01,3.695112094283103943e-02,1.277977880090475082e-02,-2.332826852798461914e-01,3.254528343677520752e-02,-9.985312819480895996e-02,5.545195937156677246e-02,-2.280534617602825165e-02,-1.999671198427677155e-02,-1.116480305790901184e-02,-5.501165241003036499e-02,1.775810867547988892e-01,8.792468346655368805e-03,-1.282733231782913208e-01,2.649030089378356934e-01,1.969149336218833923e-02,4.384650662541389465e-02
-2.291513085365295410e-01,2.341792918741703033e-02,5.332491546869277954e-02,-2.476628124713897705e-02,-1.135226339101791382e-01,7.834874838590621948e-02,-1.884997338056564331e-01,1.020364835858345032e-01,-1.413778513669967651e-01,-3.897440060973167419e-02,6.533288955688476562e-02,-6.925863027572631836e-02,-4.577652513980865479e-01,-1.101041138172149658e-01,-2.928934395313262939e-01,1.209286041557788849e-02,8.883138746023178101e-02,-1.318428069353103638e-01,-3.387814760208129883e-02,-5.877358838915824890e-02,-8.143825829029083252e-02,-2.661387324333190918e-01,1.575504541397094727e-01,1.623951345682144165e-01,1.550469547510147095e-01,-2.377293854951858521e-01,6.040602456778287888e-03,-6.087827496230602264e-03,4.568389803171157837e-02,1.728094369173049927e-02,-4.437014460563659668e-02,-1.266706883907318115e-01,1.616646721959114075e-02,4.541849717497825623e-02,5.784159153699874878e-02,-7.753367535769939423e-03,-1.841841042041778564e-01,1.309892833232879639e-01,-7.500850129872560501e-03,-5.997092649340629578e-02,1.011314541101455688e-01,1.448283046483993530e-01,-1.097125336527824402e-01,8.739183843135833740e-02,-4.135251790285110474e-02,4.555087164044380188e-02,8.892929553985595703e-02,-2.464488446712493896e-01,-1.375840604305267334e-01,1.480832248926162720e-01,2.047325819730758667e-01,6.814654171466827393e-02,-2.934800386428833008e-01,1.936255139298737049e-03,-1.290480941534042358e-01,9.587111324071884155e-02,1.821886599063873291e-01,1.881070882081985474e-01,1.455434225499629974e-02,1.540374010801315308e-01,1.294805407524108887e-01,-1.082864925265312195e-01,1.118789240717887878e-01,1.448731124401092529e-01,4.510866478085517883e-02,1.632784456014633179e-01,3.283978253602981567e-02,-2.597298026084899902e-01,1.374005973339080811e-01,1.023978441953659058e-01,1.230924427509307861e-01,1.525659710168838501e-01,-8.885259181261062622e-02,-8.641783893108367920e-02,-9.493449330329895020e-02,-1.795387417078018188e-01,2.806966565549373627e-02,-1.584101319313049316e-01,3.770592436194419861e-02,-1.872875243425369263e-01,1.412412524223327637e-01,-4.888381063938140869e-01,-6.270900368690490723e-02,1.696537807583808899e-02,-9.134113043546676636e-02,-1.203772723674774170e-01,1.206120327115058899e-01,3.591914102435112000e-02,1.294038295745849609e-01,-6.334305554628372192e-02,-1.086398214101791382e-01,1.386706978082656860e-01,9.271769225597381592e-02,-2.419547438621520996e-01,-5.255622416734695435e-02,-3.462285920977592468e-02,1.683468669652938843e-01,5.007641389966011047e-02,8.795592188835144043e-02,-1.704413592815399170e-01,-1.207707226276397705e-01,1.955384612083435059e-01,1.908497302792966366e-03,9.598907083272933960e-02,-7.626332808285951614e-03,8.981975167989730835e-02,-7.979002594947814941e-02,6.513958424329757690e-02,-7.738934457302093506e-02,-9.171872586011886597e-02,1.294584870338439941e-01,4.740031063556671143e-02,-2.280306071043014526e-02,-1.171513199806213379e-01,1.433047354221343994e-01,1.668723523616790771e-01,-6.396096944808959961e-02,-1.114558055996894836e-02,-6.064015254378318787e-02,1.324012130498886108e-01,-6.727373600006103516e-02,8.990627527236938477e-02,-9.673515707254409790e-02,-1.624431908130645752e-01,-5.267333239316940308e-02,-3.966601099818944931e-03,-1.315725594758987427e-01,-8.832091093063354492e-02
1.429940760135650635e-01,1.822743713855743408e-01,-6.801623385399580002e-03,6.266612559556961060e-02,2.740723825991153717e-02,-1.390109062194824219e-01,-1.198527291417121887e-01,6.206756085157394409e-02,-4.307451192289590836e-03,1.821631938219070435e-01,1.459642499685287476e-01,-1.898732632398605347e-01,-1.253036111593246460e-01,8.600222319364547729e-02,8.083773404359817505e-02,1.049346774816513062e-01,-3.822339326143264771e-02,5.379179120063781738e-02,-8.088026195764541626e-02,1.733336597681045532e-01,-1.742798686027526855e-01,1.799393743276596069e-01,1.651014387607574463e-02,-1.307991743087768555e-01,-1.440723985433578491e-01,1.542680561542510986e-01,1.698444038629531860e-01,-3.975195065140724182e-02,1.856112033128738403e-01,-1.376379979774355888e-03,-3.910213410854339600e-01,1.494439039379358292e-02,-2.185535877943038940e-01,1.830600649118423462e-01,2.421988733112812042e-02,1.510938555002212524e-01,2.572836726903915405e-02,-1.283877491950988770e-01,-1.789757236838340759e-02,-3.313762247562408447e-01,1.468999981880187988e-01,2.240457236766815186e-01,-6.403864920139312744e-02,1.050442680716514587e-01,6.526761688292026520e-03,1.656946986913681030e-01,-9.249795228242874146e-02,-4.354446381330490112e-02,-1.969714015722274780e-01,-4.494851455092430115e-03,5.423333961516618729e-03,-1.244343817234039307e-02,-2.266856878995895386e-01,-1.644059717655181885e-01,-3.232509270310401917e-02,-1.492960900068283081e-01,-1.876234710216522217e-01,1.591041535139083862e-01,-1.203750967979431152e-01,-1.254005730152130127e-01,8.504806458950042725e-02,-5.852029100060462952e-02,-1.204040125012397766e-01,-8.574006706476211548e-02,-3.100705333054065704e-02,1.918551884591579437e-02,-5.818576738238334656e-02,-5.291686952114105225e-02,1.260478943586349487e-01,1.281038522720336914e-01,-1.291164755821228027e-01,1.896627396345138550e-01,-8.058817684650421143e-02,1.098732501268386841e-01,-9.600158780813217163e-02,-1.406013965606689453e-01,-6.446090340614318848e-02,1.392828524112701416e-01,1.237348467111587524e-01,-9.387926012277603149e-02,2.672818861901760101e-02,7.969045639038085938e-02,1.268942654132843018e-01,-6.117841228842735291e-02,8.540280908346176147e-02,1.962097436189651489e-01,-1.439089775085449219e-01,-4.565034434199333191e-02,-2.064245492219924927e-01,-2.126877754926681519e-01,-7.996395230293273926e-03,-9.779198467731475830e-02,-4.808030650019645691e-02,1.000622808933258057e-01,-1.370872110128402710e-01,4.231297597289085388e-02,3.928503021597862244e-02,-8.531030267477035522e-02,1.485318541526794434e-01,1.289853006601333618e-01,1.293335109949111938e-01,-1.303379535675048828e-01,2.337440475821495056e-02,8.556627482175827026e-02,-1.445395946502685547e-01,1.492730379104614258e-01,-2.317231148481369019e-02,-4.826286807656288147e-03,1.170634850859642029e-01,6.287038326263427734e-02,-3.083725869655609131e-01,1.180754974484443665e-01,-3.384003788232803345e-02,-2.287057600915431976e-02,7.249875366687774658e-02,2.451296895742416382e-02,-1.589195877313613892e-01,-1.329663209617137909e-03,-1.506002396345138550e-01,9.799555689096450806e-02,-1.647071689367294312e-01,1.388306766748428345e-01,3.996146842837333679e-02,5.448931828141212463e-02,1.744525730609893799e-01,6.172186508774757385e-02,1.188496574759483337e-01,-8.083544969558715820e-01
-6.693079322576522827e-02,1.459408700466156006e-01,-1.825714111328125000e-01,9.986744821071624756e-02,-2.260961532592773438e-01,-1.269463151693344116e-01,-4.104099869728088379e-01,-3.704662993550300598e-02,-5.533288121223449707e-01,5.906084775924682617e-01,-3.470306470990180969e-02,1.528867036104202271e-01,3.957225680351257324e-01,-2.357137203216552734e-02,-1.450571715831756592e-01,-8.890666961669921875e-01,6.988812983036041260e-02,-4.120942354202270508e-01,4.804060235619544983e-02,-1.219697371125221252e-01,3.009362220764160156e-01,-1.506184786558151245e-01,-4.582779109477996826e-02,1.136507093906402588e-01,1.309996545314788818e-01,-1.985700130462646484e-01,3.135545179247856140e-02,-1.617580093443393707e-02,-3.014702498912811279e-01,-7.631959766149520874e-02,5.082557722926139832e-02,1.221318393945693970e-01,-3.280844390392303467e-01,7.613138854503631592e-02,-4.832813888788223267e-02,2.806657850742340088e-01,2.846662886440753937e-03,-2.353515326976776123e-01,2.361758984625339508e-02,-5.023254156112670898e-01,-1.556839328259229660e-02,-3.007983416318893433e-02,1.919299550354480743e-02,3.700817935168743134e-03,1.755253374576568604e-01,-4.882686138153076172e-01,-3.531550168991088867e-01,-4.710459336638450623e-02,2.259277552366256714e-01,1.615348309278488159e-01,2.198625802993774414e-01,3.616291582584381104e-01,-9.276266396045684814e-02,1.010270714759826660e-01,2.395345270633697510e-02,4.946774616837501526e-02,-1.626202166080474854e-01,-3.472839016467332840e-03,-9.909779578447341919e-02,1.469550877809524536e-01,-2.483787238597869873e-01,1.242895498871803284e-01,-1.171464473009109497e-01,4.857924953103065491e-02,-8.459680527448654175e-02,1.097913458943367004e-01,6.646449118852615356e-02,-1.322971004992723465e-02,-2.288554012775421143e-01,-1.242995634675025940e-01,-2.888179719448089600e-01,-3.928847610950469971e-02,-4.288875758647918701e-01,-2.198494672775268555e-01,-8.577671647071838379e-02,1.015035621821880341e-02,-3.860138356685638428e-02,-1.545564830303192139e-01,-8.357777260243892670e-03,-1.875486373901367188e-01,-3.281495883129537106e-04,8.632309734821319580e-02,-2.171224802732467651e-01,4.798304662108421326e-02,3.447776436805725098e-01,-3.859433531761169434e-01,-1.798495650291442871e-01,-1.439122408628463745e-01,-1.949486434459686279e-01,1.402335762977600098e-01,-3.240441083908081055e-01,1.840086281299591064e-01,-3.954719752073287964e-02,2.987375259399414062e-01,5.117197707295417786e-02,-2.540797293186187744e-01,1.025558859109878540e-01,2.863767147064208984e-01,1.741523295640945435e-01,-7.956909388303756714e-02,1.632100492715835571e-01,-1.403085142374038696e-01,1.188774406909942627e-01,-7.023589219897985458e-03,3.525007963180541992e-01,-7.147188484668731689e-02,4.011568725109100342e-01,9.432821720838546753e-02,2.157815545797348022e-01,4.666105285286903381e-02,-1.805819869041442871e-01,6.439725756645202637e-01,-2.560855448246002197e-01,-1.478790640830993652e-01,3.802811205387115479e-01,-1.016358807682991028e-01,5.336989164352416992e-01,1.307974755764007568e-01,-5.829540640115737915e-02,-1.398501684889197350e-03,-8.317805081605911255e-02,-1.302648633718490601e-01,-3.182540088891983032e-02,-2.047874592244625092e-02,-1.795418411493301392e-01,-1.767383217811584473e-01,1.409611757844686508e-02,-5.877049565315246582e-01
-3.171201646327972412e-01,-5.294293165206909180e-02,1.463958173990249634e-01,-1.230943799018859863e-01,-1.638667732477188110e-01,1.508139520883560181e-01,-1.792101114988327026e-01,1.225968003273010254e-01,3.448999673128128052e-02,8.263518661260604858e-02,4.331452772021293640e-02,-5.312912166118621826e-02,-7.472655177116394043e-02,-8.385837078094482422e-02,9.594254195690155029e-02,1.439682692289352417e-01,-1.175934635102748871e-02,-5.712299048900604248e-02,4.502806696109473705e-04,-1.742313057184219360e-01,-2.219609022140502930e-01,-2.813563495874404907e-02,2.002234011888504028e-01,1.956296116113662720e-01,-1.144506111741065979e-01,-1.352305263280868530e-01,-3.090224601328372955e-02,8.506202697753906250e-02,6.818813737481832504e-03,4.281450435519218445e-02,2.115965634584426880e-01,-5.485759116709232330e-03,1.919789314270019531e-01,-1.705969567410647869e-03,2.313735634088516235e-01,-4.605740774422883987e-03,8.669574744999408722e-03,2.097997665405273438e-01,4.090321809053421021e-02,-7.191632688045501709e-02,1.760257482528686523e-01,2.049689590930938721e-01,-7.484615594148635864e-02,7.074892520904541016e-02,1.484310328960418701e-01,3.619034960865974426e-02,8.432155847549438477e-02,-1.411620676517486572e-01,-9.235006570816040039e-02,-2.362340241670608521e-01,-7.596841454505920410e-02,-6.305148452520370483e-02,-1.801667809486389160e-01,-1.117369309067726135e-01,-6.674510985612869263e-02,1.180309578776359558e-01,-3.840382397174835205e-02,9.425484389066696167e-02,-6.717324256896972656e-02,1.273921430110931396e-01,-6.758341938257217407e-02,-5.158861726522445679e-02,-1.106890365481376648e-01,-1.323162913322448730e-01,-8.090732246637344360e-02,-1.101609990000724792e-01,-1.772488802671432495e-01,1.710220240056514740e-02,5.116359144449234009e-02,1.691243648529052734e-01,2.413826249539852142e-02,-1.262734681367874146e-01,2.802271842956542969e-01,9.327465295791625977e-02,-2.939619356766343117e-03,-4.159996286034584045e-02,5.685357842594385147e-03,-1.609432697296142578e-01,-3.855219483375549316e-02,5.061974003911018372e-02,-2.450491115450859070e-02,-8.913975954055786133e-02,-3.480299189686775208e-02,-9.010106325149536133e-02,1.310444325208663940e-01,1.492075175046920776e-01,8.784761279821395874e-02,-1.525804549455642700e-01,-2.758715860545635223e-02,1.890103965997695923e-01,1.195461452007293701e-01,-1.713237613439559937e-01,-1.475306749343872070e-01,-4.107590764760971069e-02,-2.017908096313476562e-01,7.486353814601898193e-02,-1.661946624517440796e-01,-9.078938513994216919e-02,-2.304422706365585327e-01,-6.521015428006649017e-03,-1.716226637363433838e-01,9.777436405420303345e-02,-1.789313554763793945e-01,-3.969594091176986694e-02,2.224842309951782227e-01,3.080547042191028595e-02,2.943094968795776367e-01,1.209075227379798889e-01,9.597295522689819336e-02,-1.336450576782226562e-01,-4.190522432327270508e-02,1.748116761445999146e-01,9.532869793474674225e-03,1.223370283842086792e-01,-4.334815591573715210e-02,-7.845928519964218140e-02,1.979331225156784058e-01,-2.057152427732944489e-02,-1.162976473569869995e-01,-3.364213928580284119e-02,-4.165216162800788879e-02,1.410398632287979126e-01,1.557585895061492920e-01,-8.190552890300750732e-02,2.132817916572093964e-02,-1.218034476041793823e-01,-2.613960392773151398e-02,-9.154938906431198120e-02
2.732274122536182404e-02,-1.471424698829650879e-01,-1.660125255584716797e-01,1.078665405511856079e-01,2.484757453203201294e-02,7.765951007604598999e-02,1.495177857577800751e-02,-1.362940669059753418e-01,1.015374511480331421e-01,-1.609583646059036255e-01,-3.057003952562808990e-02,2.310986816883087158e-02,9.982347488403320312e-02,-1.423829942941665649e-01,-4.360267147421836853e-02,-9.268096648156642914e-03,2.249912358820438385e-02,-1.416411399841308594e-01,-1.363084018230438232e-01,1.409305185079574585e-01,8.829336613416671753e-03,1.319635361433029175e-01,9.353186935186386108e-03,1.540918648242950439e-01,8.022004365921020508e-02,-3.064635768532752991e-02,-1.104718297719955444e-01,1.033349782228469849e-01,-7.447466254234313965e-02,3.596146032214164734e-02,-7.511716336011886597e-02,7.922867685556411743e-02,9.600274264812469482e-02,1.315295398235321045e-01,-1.024933084845542908e-01,-1.013036221265792847e-01,1.033545657992362976e-01,1.822896748781204224e-01,1.465595141053199768e-02,1.813114136457443237e-01,1.660970002412796021e-01,6.713079661130905151e-02,4.686341062188148499e-02,6.137506663799285889e-02,3.661444038152694702e-02,-7.611735910177230835e-02,-9.542736411094665527e-02,2.851154282689094543e-02,-4.822766408324241638e-02,-3.938381001353263855e-02,-2.216495759785175323e-02,-2.815180122852325439e-01,-4.708313941955566406e-02,1.695417761802673340e-01,-1.195750311017036438e-01,1.578313708305358887e-01,-2.272435575723648071e-01,7.693494856357574463e-02,-8.338765799999237061e-02,-9.564432501792907715e-02,3.785862773656845093e-02,1.020320132374763489e-01,1.812836378812789917e-01,-6.616503000259399414e-02,-4.620401654392480850e-03,-2.607301808893680573e-02,-1.046082898974418640e-01,7.392960041761398315e-02,1.739304214715957642e-01,-8.803840726613998413e-02,-1.956183016300201416e-01,1.367086917161941528e-01,-1.515733897686004639e-01,-3.209281340241432190e-02,-1.830005496740341187e-01,1.730094999074935913e-01,1.587256193161010742e-01,1.234405562281608582e-01,-1.513300240039825439e-01,1.533232629299163818e-01,-1.063596159219741821e-01,-1.351581662893295288e-01,1.573197543621063232e-01,-2.966522704809904099e-03,1.370432525873184204e-01,-1.005863621830940247e-01,1.275070905685424805e-01,1.319212466478347778e-01,-1.278646010905504227e-02,1.294556707143783569e-01,1.618581116199493408e-01,-5.031905695796012878e-02,-7.461382076144218445e-03,-7.055434584617614746e-02,1.284540891647338867e-01,-2.368568629026412964e-01,1.085727587342262268e-01,9.352472424507141113e-02,-3.964004665613174438e-02,-4.283707588911056519e-02,-2.298084199428558350e-01,-9.303653240203857422e-02,3.142557293176651001e-02,1.718944758176803589e-01,6.821593642234802246e-02,-7.899229973554611206e-02,9.143751859664916992e-02,1.381502598524093628e-01,-2.438291162252426147e-01,1.649687811732292175e-02,1.075236052274703979e-01,1.420223861932754517e-01,-8.855953067541122437e-02,1.279906779527664185e-01,-2.193715721368789673e-01,-1.349246203899383545e-01,-2.891592085361480713e-01,1.683227568864822388e-01,1.545875370502471924e-01,-1.044193580746650696e-01,-2.762275375425815582e-02,-1.107517033815383911e-01,-5.540597811341285706e-02,-5.443226173520088196e-02,1.711923182010650635e-01,-2.573061287403106689e-01,1.911114901304244995e-01,1.827969960868358612e-02
-3.160523772239685059e-01,-7.704473286867141724e-02,-1.585514992475509644e-01,7.616692036390304565e-02,-1.442066300660371780e-02,1.583819240331649780e-01,1.777299344539642334e-01,1.894090473651885986e-01,3.380267694592475891e-02,7.481224089860916138e-02,-7.592448592185974121e-02,-1.911116242408752441e-01,4.028631001710891724e-02,-1.078873053193092346e-01,4.979953542351722717e-02,1.687113195657730103e-01,-1.406114399433135986e-01,-5.900837015360593796e-03,1.580417901277542114e-01,2.268381267786026001e-01,9.718697518110275269e-02,-7.397237420082092285e-02,-1.539911180734634399e-01,1.620092689990997314e-01,-2.704703509807586670e-01,1.400896464474499226e-03,3.126215562224388123e-02,8.495315909385681152e-03,7.195015205070376396e-04,9.482780843973159790e-02,-2.376430928707122803e-01,1.579488217830657959e-01,-5.047306045889854431e-02,2.150641977787017822e-01,-4.312868788838386536e-02,-2.568739950656890869e-01,8.104294538497924805e-02,-2.199571579694747925e-03,-8.683716505765914917e-02,-1.181112229824066162e-01,-3.753886371850967407e-02,-3.928288351744413376e-03,-7.117558270692825317e-02,2.820675447583198547e-02,-1.877543628215789795e-01,-1.194918528199195862e-01,5.746042355895042419e-02,2.026120424270629883e-01,-1.145228371024131775e-01,-1.564629375934600830e-02,1.117127090692520142e-01,-1.602293777978047729e-04,6.875129044055938721e-02,1.191133856773376465e-01,-1.596318334341049194e-01,-2.835972234606742859e-02,-1.576959788799285889e-01,1.101475432515144348e-01,3.771036490797996521e-02,7.064598798751831055e-02,-1.151725947856903076e-01,-1.737688779830932617e-01,-1.977331340312957764e-01,7.596802711486816406e-02,1.514256298542022705e-01,8.130475878715515137e-03,3.626046702265739441e-02,5.885187536478042603e-03,-1.781592071056365967e-01,1.548145152628421783e-02,-1.717590838670730591e-01,-1.200486347079277039e-02,-7.888340950012207031e-02,-1.069055199623107910e-01,-4.472793079912662506e-03,1.078363209962844849e-01,-5.765283852815628052e-02,-3.982473164796829224e-02,-7.976488769054412842e-02,6.080280244350433350e-02,2.304321527481079102e-02,-4.500178992748260498e-01,-6.651726365089416504e-02,9.292116761207580566e-02,7.401569932699203491e-02,2.247720770537853241e-02,-1.415861248970031738e-01,-1.720342934131622314e-01,5.248287227004766464e-03,-7.943992316722869873e-02,1.546633690595626831e-01,1.430382132530212402e-01,-2.371389418840408325e-02,-1.087623555213212967e-02,-1.894325949251651764e-02,-2.429157048463821411e-01,-2.121056169271469116e-01,-2.060157060623168945e-02,-2.775028944015502930e-01,4.104683548212051392e-02,6.949887424707412720e-02,-1.071833297610282898e-01,-5.242481455206871033e-02,1.750187873840332031e-01,1.154674515128135681e-01,-3.613559156656265259e-02,-2.726694941520690918e-01,-2.104111760854721069e-01,2.380171790719032288e-04,4.736119136214256287e-02,-1.876473873853683472e-01,-2.393630146980285645e-02,-1.780746877193450928e-01,-1.049778908491134644e-01,1.164205968379974365e-01,1.634425669908523560e-01,1.980434544384479523e-02,1.363174766302108765e-01,-4.135178029537200928e-02,-1.730618029832839966e-01,-1.034548059105873108e-01,-1.484483666718006134e-02,1.187144815921783447e-01,1.849054247140884399e-01,-2.113259285688400269e-01,-4.244430735707283020e-02,3.968900814652442932e-02,-4.070568382740020752e-01
